{"nh":64,"ns":5,"na":3,"net":{"W1":{"n":64,"d":5,"w":[0.023980760192968374,-0.011047196435233761,-0.007726587013643137,0.022690692661363625,0.025178314175960132,0.009213086279917201,-0.007792173969989488,-0.007569971041845145,0.0224670634058208,0.05150707248482883,-0.03348496504549395,0.006809641483059912,0.007896862455856983,-0.044594262120385655,-0.05709114874064273,-0.022929663947774223,-0.03487241133329812,0.01763268005569378,0.001887297678118283,-0.08320137752192432,0.04254452990642718,0.10060279853111846,0.03810192787367484,-0.15758016661641203,0.18136134811718616,0.002996832724698271,0.021311118902599117,-0.03214058864281127,0.024872310148568576,0.03726978174545203,-0.00026623382038904196,0.04245021323532595,0.012995576207923796,-0.0425286687388904,0.118869365651646,-0.02278385015658494,-0.017075193271378925,-0.06334039294834498,0.0904452002445336,-0.138901964941451,-0.037422464059565654,0.023826022343644525,0.0281085875143629,-0.02394982497644412,-0.012583231415761106,-0.01583225764981266,-0.026547785862068272,-0.02075330033002584,0.03623601691341143,-0.06886932843242799,-0.013989764200447584,0.026554432833258042,0.06173141746589346,-0.08526347803686947,0.0024730325959471844,0.024050200548435156,0.022135385898991774,0.017796125153631732,-0.0747547929709477,0.0653443204003305,0.00893461246729603,0.044675308155786825,-0.00610023581642344,-0.013602582459093921,0.05593939471633616,0.02201704097542676,0.035325311801686944,0.03756902904858313,-0.07498294939447774,0.04327721664925838,-0.029645138035180908,0.016363166573035746,0.02094927617158959,-0.021272455997034898,0.02570577913980386,-0.012086461031725787,0.054271787025744304,0.040830088394525337,-0.09142467855444576,0.041258970118462066,-0.017723219137225563,-0.02461608933994905,0.009193989576221024,0.017506861260015327,-0.023777248873923972,-0.009932948929359958,0.03140808821230633,0.0076460215600990065,-0.03334728138534375,0.035145179754052173,0.018369813772204712,0.05014450470468782,0.019344090851022858,-0.03708882921009574,0.08390724282224793,0.01855880456894976,0.034233065038177045,-0.005293213891738856,-0.027517723837839663,0.0786100415819193,-0.0008529416385208295,-0.05445559827793825,-0.03844952266079439,0.05694310274661126,-0.1733454371409946,-0.01253776916169644,-0.03718171826212816,-0.015931204012197556,0.05422272988494318,-0.048245020766799325,-0.02727598582945966,-0.0014430771730216006,-0.030646391888343814,0.05425862539286486,-0.05820799050773293,-0.02690197200365752,-0.10472543659037455,-0.06321893511441092,0.09436650468876519,-0.2700731987361303,-0.01967733840291438,-0.004748237085498096,0.010989992953324182,0.002689938363530852,-0.106673888805769,0.02481693385467887,0.042412355078734636,0.01876256718521919,-0.060990687674624386,0.1428544526543722,0.002745294790594674,0.004991402620242848,-0.014701563478536914,0.04886597017166898,0.007336803404635725,-0.007009265297816428,0.013010374984609685,0.046546008179960706,-0.06417204261573961,0.05007067101453833,0.02048430464532878,0.010288113988365962,-0.027503751465626097,0.041067026503508325,0.07210909709216663,0.022444064994108726,-0.039967897304030275,-0.06385470800057681,0.10210399819816403,-0.041433680398146745,-0.028226168026421555,-0.02744105557882011,-0.01493704485060554,0.03273599989674201,-0.1287339675561623,-0.026887873280120777,-0.017896023020807058,-0.03377084643436354,0.06438893621809601,-0.09163073107497169,0.011842272942607724,0.008839445752011324,0.01245789133402966,-0.01936898656849754,-0.005465932637419661,-0.004272237611233734,-0.06008928262071747,-0.04604184627069801,0.09806298633393006,-0.05832197809580059,0.008957560163514573,0.001182708158929704,0.02355737570989307,-0.07194700732822175,0.036861042945153424,0.017100520991001136,-0.003955769941877227,-0.016820078758018803,0.024493977877228984,0.028216171291409988,-0.01556515565163843,0.05780893739836254,0.03738217453317632,-0.09365294966591022,0.04322978883078736,0.004785781963888866,0.033338444120363415,-0.00473066305251903,-0.00011990003779060711,0.026764891617199783,-0.027055255089841596,0.013823406291505143,-0.004144289199324484,0.023408453129058655,-0.009034637590541553,-0.012774951965532256,0.019801719091432662,-0.015217223019254171,0.0331935317157979,0.02095099873453206,0.018764574364879688,0.0426827418066673,0.007515367999164818,-0.031908215729230256,0.06390117983650224,0.00004323570930237227,0.011192797920808231,0.03349230959247155,-0.02341477309166957,0.04239683092111248,-0.0024843350934990642,-0.04447094435047568,-0.02407661810726737,0.054572589611033666,-0.09651099837426566,0.018980519449673734,0.005014685798560725,-0.020566940566062897,0.0016349418293044795,-0.0037118281053259696,-0.0064118074525522485,0.02229635040682153,0.010915926499312854,-0.017906216580312353,0.030001353463741463,0.010130030728787397,-0.03009975038735387,-0.027708858252963896,0.016531637323994014,-0.03367639030399635,0.012734929212460094,-0.01982622238134328,-0.021481768421317753,0.06510796039509344,-0.041584992564093114,-0.013911701718725102,-0.05537169516067574,-0.04156443211526708,0.10215310497327645,-0.14193989133790166,-0.015926891626603032,-0.030209202002494263,-0.042981366096671525,0.06939417362272972,-0.13127056090222516,0.04712977484315369,0.020004216719023145,0.018478933067360804,-0.07009537869702555,0.12086172846115331,0.000684221468209671,0.007593424329462503,-0.014619417147325092,-0.007828196448141918,0.011427859313539582,0.010105683506016747,-0.002449679848582872,0.018039781062617655,-0.016856597804300624,-0.0168462750470694,0.015190751822484342,-0.011635213728896913,0.015190502196850055,-0.005056876730730393,0.029501970119918414,-0.02062609382567351,-0.0007656766443340467,-0.011784096501241133,-0.009054232959048149,-0.021980734790504077,-0.014511182058996718,-0.004753424929362966,-0.027032362544186804,0.033186605720539206,-0.0009614784033563136,0.01423164496231746,0.005032826148300218,0.013530325178767705,-0.02704003296060763,0.07281591105514652,0.03218750640314232,0.010179532320694528,0.0034352351396950264,-0.02836550996755023,0.04604129681800347,-0.011992506220756012,0.03393273286244285,0.00807042951261423,-0.006022748151780955,0.06176558681781775,0.01569392541240786,0.04966840617755031,0.0065330830645492525,-0.04402777928726991,0.12193876081701598,0.018151704665279822,0.0006850658316369475,0.020900330234790657,-0.0023850493226426446,0.046230755126723824,0.04025422440178256,0.03420302205984255,0.036013207778049845,-0.0712742643179904,0.14645308867715562,-0.0044470689206149135,-0.011033067766089312,-0.005507209673719891,-0.012445694324426028,-0.09945169723625367,0.00574477077528331,-0.012259972223325189,-0.04001670043296287,0.06828544879129714,-0.0378801931966235,-0.0011811730231034458,0.014588126140282685,0.028273216720692395,-0.06857341430497507,0.04106192585143235]},"b1":{"n":64,"d":1,"w":[-0.02206051296818945,-0.02498806394882805,0.050369980742255537,0.03647454348952202,0.04092839762235279,-0.03651749689053406,-0.011323551891659867,-0.03392275232294461,0.014249501486243536,0.0031739846558033464,0.05378757206011859,0.030881074056086238,-0.024478302053836,0.02803793643043949,0.008332870566979815,0.03856573099740457,0.00616836579120389,0.004781795964641235,-0.015892047605550137,-0.015641460828805756,0.01449680865113498,-0.012172060364190109,-0.023463833339647914,0.015559489789496292,0.02533534001766443,-0.004678859886288952,-0.041455030379309574,0.03485021675439321,-0.05485778827262025,-0.05612292345073443,0.017473979910827338,-0.018082937497094116,0.008912144826834879,-0.031486173861642056,0.047913083810174874,-0.025955688778096606,0.037962881643196736,-0.02283050528498318,-0.017002585200866782,-0.03646723244458625,-0.01324807485908515,0.002889468580046988,-0.0011927880845133579,-0.0049164263625101935,-0.0037462293760278076,0.00875882108473636,-0.036960787845858455,-0.025030513118245893,-0.012233689845992326,0.013613862253902431,0.0012273669946291043,0.014706404414222829,0.0005071404249002457,0.017343715298523823,-0.0192867021052254,0.001198354216003622,0.0016723491195909422,-0.023833611953762626,-0.0176870238443812,-0.012134559740526085,0.004738010014415487,0.0356391095864725,-0.03847473693825878,0.038512706592843754]},"W2":{"n":3,"d":64,"w":[0.012398021169955318,0.021877189633873664,-0.03580512441372581,-0.04866438995271602,0.07570555791048324,0.027484367768983595,0.05675180812368206,-0.04884093729503542,-0.0036871419860522964,-0.03276181342224381,-0.0063859632275523204,0.022575230491747023,0.03849534850771187,0.021447427355265423,0.010386694114150283,0.016932591458399666,-0.018128107261950823,0.017459126575529702,0.04999137828134549,0.042217054758102654,-0.08238012691352516,-0.025627287049960104,-0.016339284906609273,-0.13947067071912003,-0.04564314930306338,0.06502283560639913,0.01619625066523799,0.011095468743821538,0.04280784364334044,-0.011150926992158633,-0.05937195928426526,-0.033564144367257694,-0.0013588435661009567,-0.0266375540074114,-0.0007533103144277523,0.017692558057291197,0.017717303895802915,0.024862306234925306,0.0036399260439947388,0.020731894606144545,0.04070899653607604,0.019472840696320937,-0.045012366417661064,0.0012767137689762163,0.019010342038340348,-0.023530232304675863,-0.00827891707352623,-0.05812084587244351,-0.0531581478675508,0.049961612934466965,0.004049162974714181,-0.00878287058413478,0.006263784457206739,-0.013735456235177506,0.0024534819351060303,0.027362361626160698,0.019334415767868592,0.03728975499517522,0.06256182994670631,0.02212052206846296,0.06326454305859402,-0.04816427188788082,-0.007472045931550727,0.006862469152286924,0.005896378206762641,0.011933487880932512,-0.010704718665369824,-0.012307778612013511,0.07207725369369186,-0.00781396708718163,0.034526141149695065,-0.07245700504615676,0.000789278883254523,-0.027371205672247018,0.02643111832439776,0.03213543646850981,0.007363961263720792,0.03012503821008908,0.011282724078364609,0.026660276982225867,-0.002590693618267432,0.009820469248469263,0.0275114504003143,0.017815916206684674,-0.058216014209031414,-0.02025557788575093,-0.03631750919585723,-0.09129752017732483,-0.02642430012023305,0.04804202804457633,-0.00936744538367292,0.0360010923192873,0.005041465439925294,-0.03728319148203644,-0.043027565893728935,-0.04523058550468387,0.004939410302658044,-0.03374027931568092,0.02907289449613188,0.0009116428468287898,0.025052481476410808,-0.00019131442756591295,-0.011769006817847929,-0.00831380305718183,0.01768793848577408,0.024733489631900224,-0.03460458414135827,-0.007052432076230391,0.008542060058905763,-0.014241114783823462,-0.023398336894263853,-0.05869607697896923,-0.057061040710364844,0.049346834585686936,-0.0020192017579627047,0.005117013153220129,0.018852126183234924,-0.010932333587386626,-0.014788603251142585,0.029310276268312598,0.019217789777886195,0.012441831909750548,0.03290380219649781,0.02262660571999279,0.060044224067912044,-0.026391501418592422,-0.02925703766863883,0.027456208735678573,-0.018473297933958837,-0.020137166145958393,0.036870216298651656,0.007242458799567867,0.10339140436693287,-0.019116107253571345,0.019670302169535296,-0.04713509620081033,0.016356824324181986,-0.015590028908152042,0.055807599172627065,0.04529905189266759,0.0004320329717769863,0.041781138311719576,0.01222279603590679,0.05631149134180554,-0.007639904554103693,0.018651753256941024,0.009318432259071552,0.013495510564668578,-0.023302570536404613,-0.02836232543615724,-0.0306716910382396,-0.031086496957472808,0.001986124476154552,0.029128487900682083,-0.03899946974775265,0.035812091052066744,-0.034846749395617806,-0.06763543765467243,-0.006958610926887834,-0.03315244870563331,0.009280945270359546,-0.0629410722875204,0.04619075614126148,-0.017341883234630474,0.060567473557559634,-0.006541459321438981,-0.017545881845633503,-0.026930785511148716,0.012120671356300784,0.007381593903197695,-0.02500727213693377,-0.0022799981941019434,0.010546650332297135,-0.003072105216656488,-0.039787656998968246,-0.05913741363306788,-0.032372972550243254,0.038825905315590256,0.005748986636028538,0.009957536360459122,-0.0026632587634083265,0.012673543945646307,-0.01696838369770818,0.01168364699087208,0.01253521711142595,-0.001269247797053385,0.020265922996745497,-0.007822982484895866,0.032377636666957026,0.0184147612375744,-0.04707338213145429,0.04346582354540117]},"b2":{"n":3,"d":1,"w":[-0.06201208510404708,-0.07777235926556961,-0.07956461149121691]}}}