{"nh":100,"ns":5,"na":3,"net":{"W1":{"n":100,"d":5,"w":[0.018745409863472017,-0.03347198417389083,-0.005196091543715156,-0.014697138000267394,-0.007507850696059787,-0.01887517616181827,0.08854162715084003,-0.03899492113714818,-0.08015060725400484,0.015303645122516578,-0.013957096083052309,-0.06416838886999403,0.02575939935680226,0.06367706080623399,0.013068923845491156,-0.029140650287054416,0.04018051845758284,-0.0083152920840941,-0.06439519180488294,0.028517980169376112,0.02809110755324107,-0.020063710553432302,-0.03119399607750764,0.012987814671235895,-0.06737779133772052,0.013069393913573465,0.027543884783331796,-0.004349301084717788,-0.08307326804856857,0.02786459602536174,0.039575309295522346,-0.015143281527901455,0.009404879901253889,-0.05286350877862235,-0.047480228480837404,-0.04135682215010707,0.009867922519997734,0.004322421606941724,0.050022158299978005,0.04173947578761524,0.03402271919332132,-0.06143747557236448,-0.02551369667161327,-0.005609239878624208,-0.08875585236403925,-0.04952898062698201,0.042038908966241725,0.01855349722249024,0.05110529314258454,0.02823315331484822,-0.022768762106452005,-0.013997013663309466,0.019897897932258917,0.05433030742397292,0.03588290562511472,-0.01736536264968962,0.0786693001230447,-0.03442404839089615,0.044189290995185176,-0.02743066394200885,0.009925887988094122,-0.05264896393522843,0.06063560813254304,-0.012347162298754523,0.13117489818687902,-0.031041338131830905,0.04953089818881792,0.03078584783470075,-0.060405564754840164,0.028281969279781796,-0.03504418734577105,-0.023662248350585516,0.013923958947730734,-0.01582813813001364,-0.03332736825704102,0.01148673743618359,0.038431413686648735,-0.01236567527217043,-0.05313500727897386,-0.046699440795441804,-0.037072618930729793,0.08307987258796519,0.0690267986234555,-0.05178845442253924,0.11780019337146001,-0.031037555497631396,0.005184851566839458,0.04453401353310171,-0.01030184253549468,0.06995073619366991,-0.03710264872630324,0.08413806453598452,-0.021607582086554042,0.0017548303785579688,-0.028417644873255453,-0.03018450065741439,0.01578556346770319,-0.007193292943124293,0.013214684617930439,0.07550408605943387,-0.009805036646320925,-0.05451440451600989,0.0006164085612238046,0.14505705519649242,-0.03339584871629974,-0.01046296853357518,0.01703240001059485,0.02197122704739412,0.01043392413178437,0.0905944718132886,0.01657537034007156,0.0302990860298548,0.0463407736851171,0.005770189556530968,0.008792993523188315,0.01573452261314296,-0.05776257617757583,0.029655244935057067,0.005364987231343442,0.07258552626455769,0.0035058528382503128,0.02352490469731272,0.01615367530231089,-0.03609427310023497,0.044182486012119875,-0.00754198056190721,-0.01386669789555435,-0.0003494610887116459,0.037991067663962375,0.04604328891401466,-0.009145725718981338,0.03721179524842824,-0.009188850085397417,0.018518044160784414,-0.00034603164575451074,0.005644896306574041,0.005513154501853478,-0.016636922707484597,-0.015984590522713876,0.01007433103997072,0.045009580316711165,-0.07180053081034429,-0.03972697624654476,0.0643319883236618,-0.07331679766738985,-0.0199104935507547,0.02684858152163541,0.020858420994930002,-0.1017327387979575,0.08812192646424359,-0.021450336948513383,0.003308673378428969,-0.04458753737971802,0.07112063899665291,-0.05045008553870184,0.03330036963802762,-0.08062488547168434,-0.04877073400679425,0.1052869469365276,-0.14141984990336687,0.012585720910876102,0.006458317231211774,-0.0517024040087419,-0.004262856504268207,-0.0744218654720341,-0.02243997581781146,0.040103888984609044,0.01628197087841554,-0.03772629719800965,0.06377042562003755,-0.16711457126013934,0.2465486233922557,0.38273085597273,-1.0353314953535446,0.44385723899926743,0.00759826110063781,-0.026978596747155,-0.021435699555043118,0.04680832184573347,-0.0427340174154725,0.0366893652501666,0.05012605119522154,-0.07080228503018579,-0.020871525368706043,-0.1343023072391349,-0.0012843378080740879,0.011802512574550554,0.04474386002034644,-0.02629859544710537,0.04145283112533119,-0.041297602595352124,0.011511175492725144,0.060594454671431174,-0.06362692810174245,0.12710098009526777,0.06503553854927437,-0.08194677998418991,-0.00006753635526653091,-0.07076873828185024,-0.08140656202823619,0.04498264198317088,0.013580349454900172,-0.04018137861352479,0.002312302757796886,-0.07849831313979508,0.008585517697085997,-0.07632609482022931,0.025919765154070018,0.03549360489844249,0.07195064072590207,0.06849198021986418,-0.09511133246479432,0.002217093454766182,-0.010708162560540782,-0.10302098675739797,0.024607020637609656,-0.009022432042243057,-0.01622557044464853,-0.012362634733314554,-0.017193885131810985,0.004200149407420714,0.048551937448319336,-0.05183363662185782,0.0022620425049026307,-0.0480784028593085,-0.02019103716740781,0.08956145518123661,0.00550721429716132,0.002317814252688825,0.05013120861631514,-0.02161460882617137,0.0029515551715571867,0.004113002353070281,0.0891948151491609,0.01255889603874956,0.0027596687071880744,0.056518413385313125,-0.015057287337168641,0.0021302745963814353,-0.007718946959387515,0.02134745448094379,0.00640497400504469,-0.000542357429533951,0.010422249587683624,0.04374936845645603,0.00802769439122483,-0.00190840842180472,0.046218654800605684,-0.09717859247652194,0.020022363983969338,-0.032760123353908176,0.04712302701622021,0.04044942977056515,-0.09324743561851907,0.15334306444639698,0.009424177114654824,-0.03221629414208528,-0.00038024106120496635,0.005521374893723176,-0.05911834905059318,-0.02617694658825451,0.05900832113643248,-0.013453937183705597,-0.008116796171337799,-0.005837623701419109,0.028362397477577458,-0.014106371987888762,-0.030153591664916025,0.005123848136032803,-0.05631966270630366,-0.016173303678410352,0.01570564288840101,0.03727681185483742,0.01729796237090242,0.019640282532475187,0.027054258650236692,0.03671049659459032,-0.012405394186577478,-0.031163088211981323,-0.03804392571132959,0.004644473591272691,-0.021389227083336317,0.02972372271345764,0.028113827839604172,0.05423036144292702,-0.039349630578957955,0.06220251296881574,0.011205361036342138,0.021710559284572432,0.05878437470595483,-0.03362664929440779,0.025787999692676544,0.03046284359588,0.004867190718455544,0.045097845333020185,-0.01234293240378687,0.003065358711616602,-0.0016509312035578375,0.04024565769508136,-0.09322175753147288,0.035276061732898926,-0.00404713783997461,0.009377287378844022,-0.03599308315976499,-0.01622913803149404,0.01731849781404914,0.056152462045924174,-0.024779912323443027,-0.04599233051262246,-0.06471737737122112,0.018960430083565998,0.056987660653964024,-0.026324516171566857,0.030477370455671168,-0.04617192504583753,-0.00484016923686122,-0.032294136563237465,0.026209739096485638,0.05615906077822652,0.04186877372277238,0.029503215859120975,0.019549928170404535,-0.0057206230394496295,-0.027776907940444236,0.035972841418345065,0.009097018612489249,0.026458893582217043,-0.014428476414919114,0.034952095746691156,0.008293956010225112,0.012578780678026718,-0.011158442233940021,0.03071182130809191,-0.015735373694817565,0.02839247991963317,0.0034383002402370707,0.05361440402266012,-0.025835444514253614,-0.03782139677844407,0.016676752496146405,0.010040658820052216,-0.012697172669347426,-0.02293472466741487,-0.0023652371119586226,0.007661717556729622,0.00010115916339690817,-0.0061820650515620286,0.03856321972924872,-0.018904594358910926,0.061502461632197004,0.00038625358451002423,0.004605901484764343,-0.0035881784200491743,0.0005051505603032293,-0.016687115782803127,0.011607771926395734,0.0021481599474655584,-0.03220368436375188,-0.04379823186690315,-0.08990729669037958,-0.04597438627617791,0.04615211535823176,-0.009109209018226207,0.09364032986927392,-0.014902742543795904,0.02372859563758228,0.015379704720906218,0.010690857766756209,-0.03636811773113872,0.021767513569785544,-0.002813135774811532,-0.0379517006819352,-0.00004353932768650573,0.06653487053771125,-0.006284567485664009,0.03910484727803936,-0.05945682194217251,0.03806002663214368,0.0607198812367447,-0.01815449114665174,0.026477765907426478,-0.06398647862132406,0.0098948825767898,-0.04802231569735551,0.04472225225354785,0.017655193360469838,-0.03543372594066394,0.010525020765003919,0.029299456601420484,-0.021440597947316564,-0.004062937194107364,-0.026343812114042138,0.02783251385381049,-0.030095513194031785,0.014566044090464681,-0.01738617477718879,0.009502742809209486,0.015193202038667163,0.07053666983797019,-0.021456105504976345,-0.005108341319475046,-0.06614110263637113,-0.006010964377976008,0.003732719501648503,-0.002468665582284337,-0.030942922307832958,0.04706770283163558,0.0006970728588053969,-0.008154759242885043,0.007135014863257875,-0.00804265245968865,0.014293096937339829,0.028278253030452512,-0.023094770977409907,0.06104165592546432,-0.004841756701545268,-0.017213356989766893,0.01615263366865554,-0.024897384321611267,0.027256573631614413,0.04828312568447668,-0.015960747814059793,-0.0054803858388411415,-0.025590405499409222,-0.05716360234751708,0.0009167412473673351,-0.05023445558017862,-0.003437373506239206,0.030922291819586046,-0.03377860496460856,-0.03779911224243285,0.03785917430981425,0.00023836620065062158,0.06199523749043793,-0.003041798536679421,-0.028086170512618146,0.037894433704873325,-0.015690755414377054,-0.0025727048578587917,0.09423420586864287,0.02462276338708122,-0.07951801802370018,0.0027004049733265886,0.004524790676861157,-0.03751574812093716,0.013208724805341934,-0.011739552077819517,-0.015118440195701252,0.013192555612573145,-0.02204659290714796,-0.004157150948662452,-0.0014307986631463495,0.028519039526902223,-0.02516676773736092,0.005554768217367184,0.017596693830331498,0.0013432928876197145,0.02928589482801915,-0.03345633185387899,0.03814695175313589,0.03674503886890125,0.028191781937679468,-0.01856073792353346,-0.03315010728181366,-0.1046173450539671,-0.04255998809308504,0.022516678604597926,0.045191935920036605,-0.02465126226572754,0.12626834991476235,0.02266658680149518,0.004923702611629467,0.010100288895505915,0.05952735648454056,-0.0295929213477441,-0.04370026246871154,-0.001460546072525341,-0.0023686213469990233,0.06493473561232824,-0.0025357178747947113,0.01780251975083685,-0.1008917254842545,0.021763451298033386,0.05363338954706243,0.09683165516446461,0.017227567511029603,0.08973874735095279,-0.005175072902792596,0.04001169954618425,-0.07045564691636665,0.032476163771528836,0.002049359043319819,-0.051983512850775654,0.05336491200259838,-0.1894923082239709,0.011611924138111766,0.07920864801477444,-0.014754954747942927,-0.005765815434613342,-0.05479868903521624]},"b1":{"n":100,"d":1,"w":[0.034256481466252715,0.03936690635002474,-0.027526220395313994,0.04431337845187308,0.028750666759435967,0.04674195074451932,0.05827212972970351,-0.05435041406960291,0.08092418855220042,-0.07522828810166092,-0.05655977572365554,-0.06542290157233384,-0.03916568224710452,0.016786950130999543,0.061113354919173475,0.045254562101684444,-0.06864771652235777,-0.026270439353079295,-0.02066520154180081,-0.03696087930882843,-0.08723984463230487,-0.06611366438946996,-0.06234952756586114,-0.016969997465569805,-0.008897980596921365,-0.04384746889550071,-0.03632278773058794,0.01231162223285481,0.010725970521977674,0.046801068742093874,-0.019985355895156008,0.015968413087067326,0.04829638377232274,-0.012984098698237384,1.0336221697088377,-0.0039545416408345154,0.05463259583223024,-0.019503036351855345,-0.003700431520502045,0.13034134598128524,0.014655912655116406,-0.02795832114510445,0.0848856508409466,0.01997299774497,0.0044246826994405256,-0.08069161809224842,-0.08733752458110376,-0.03472054715000943,-0.04592992509521843,0.06505564088326315,-0.006218215865318486,0.03806032968627259,-0.011288868884080134,0.027010564047048973,-0.04535373901911965,0.011688810114865417,-0.05264849777272808,-0.07552911656754045,-0.037933528304890156,0.004653475801338349,0.022133794569357244,0.0352515488284004,-0.0511425816769595,-0.06084791211725505,-0.015589736961020284,-0.05674144077590199,-0.009374596462037603,0.002162942914837076,0.013153940023162622,-0.020615499259793703,0.004756626843366427,0.08977858056674871,-0.09222981112739308,-0.0020172236980842014,-0.03559654996126527,-0.050609453944916304,0.05729063301272729,-0.009645791622862897,0.03290760434347492,-0.06637835673178807,0.05124318367575163,-0.011815751463002467,-0.02166467987094238,0.021317134509949456,0.037275088420337964,0.020705661826397107,-0.06800082732486787,-0.04232172970196784,0.0545003438989691,0.0040653183769009775,0.013465884017446646,-0.0068986338514239725,0.04596742218154885,-0.04243845822707241,-0.06855619231519583,-0.03781349333547564,-0.042030668632422566,-0.0840104055261651,0.032625360756289724,-0.028464562400137606]},"W2":{"n":3,"d":100,"w":[-0.006071553791691171,-0.017191890217938988,0.01297785231011735,-0.017520174220471113,0.007293510775119262,-0.024207408640136152,-0.014369949581948843,0.013077754247346755,0.00006854564008930289,0.015980469084826938,0.012489848991192926,0.021104173318324038,-0.017131439517545373,-0.016967785250371663,-0.004649070300762921,-0.010059233948735145,-0.018868100267489186,-0.008071648667713444,0.00872849495570508,0.0009667621745056256,0.04045192346273968,-0.0017863310278158238,0.0015733281881789181,-0.007566538389064301,-0.012262286831483522,0.007707242168519839,0.00832970700546557,-0.0044334305931268666,0.019286285757098044,-0.03349410838523739,0.02564633973155925,0.035033272291227074,0.005201446327260128,-0.012598023642794139,0.25031794916097094,0.015198166761055853,0.007718273266503811,-0.010902249952211252,-0.0268462237253653,-0.022178722535278052,0.007259008143867598,0.00023193772314765462,-0.004373282593773346,-0.0028546907534640004,0.008424077283181366,0.0036782753552803303,0.025675023398988462,0.005327280881409936,0.0009118800206761895,-0.031193802876728006,-0.03413613108252962,0.0029039746027349697,0.0024465001390392253,0.0046873081357491795,0.0038798789380707997,-0.00426515982192494,0.00274618285266936,0.007075774279879773,-0.00027263516350444454,0.017717111344042618,-0.01046107206281138,-0.00524234745314449,0.01624989069937748,0.011167396322859591,-0.008993723734912867,0.012060273215676293,-0.008121518071939171,-0.007778449313744797,-0.0012695200866179128,-0.010868141973491067,0.0015339051892738448,-0.0064923668537818,0.031953391913542906,-0.011493744044020007,0.017516618080965017,0.013530971357240212,-0.021505447174467975,0.007127150499303162,-0.012388983896752507,0.02230430056048984,-0.002909259510476069,0.00044484542485529117,-0.010340338116292353,-0.010594665262327147,-0.005399520959504321,0.007928294610001616,0.02119792565316908,-0.003063550706098793,-0.0020341439906637173,0.004839977153346539,-0.008796118480454753,-0.013089041075263885,-0.0012013692935987873,-0.014396107654414462,0.019162665517484016,0.01950735537828831,0.00244946069184356,0.02206895115131274,0.028775956251351854,0.0072659847932732054,-0.011780616329305925,-0.01432212383765674,0.008277179976597089,-0.019674947373796117,0.007229773782694113,-0.027183122053812018,-0.015985269510124744,0.014808047196106268,-0.006642922220865775,0.024417770314503727,0.013176259361653089,0.035517568859700054,-0.02730634596346596,-0.014287106233130082,-0.009104239354447492,-0.0062354851249763555,-0.010540910243871607,-0.009486444200552321,0.020335074612331864,-0.0010652850883326776,0.04446956821043595,-0.0011172811934017587,0.011169797781888981,-0.01676205028055798,-0.011783231698087376,0.005887281363709007,0.014749238938398981,-0.006230132562316095,0.015304933900933163,-0.040741924200945724,0.029527715623136906,0.033722984239446224,0.005954742008064516,-0.011848706980177452,0.27155071388867574,0.01514804420765725,0.01629713098864827,-0.00951159021513897,-0.033300313900846444,-0.03431207402352303,0.012618123572781966,-0.010003000577997169,-0.012272437841534511,-0.004419848462106873,0.014993794981777341,0.01577350409100689,0.03192410917557858,0.014168897349161153,0.0018943926241936169,-0.03633052639142913,-0.03893235988052794,0.0012234069076531636,0.00929524002802127,0.004587541423311733,0.008933348494383707,0.0015730449814720334,0.0015603315213348569,0.01507573781125187,0.002784422339008057,0.02483236300453119,-0.010550983434221504,0.0021199312162916654,0.029271404888263852,0.010282246353689944,-0.008410182474555408,0.018206627780782258,-0.009457980971213158,-0.004567741007390933,-0.005125521234104648,-0.013207900565784796,0.0028527139055972324,-0.0074862278699032924,0.04484166782107183,-0.010666418174937615,0.016704115914550052,0.014751108427117654,-0.03592707822045888,0.006402053232394062,-0.017891791782397713,0.03074089331086629,-0.014209064443700774,0.005563530592603305,-0.01084077238843107,-0.015693535890787834,-0.0051736302357456914,0.0033866529198436656,0.030550844624335362,-0.004056080807888842,-0.011523342636657392,0.004524921720028353,-0.009306787448268293,-0.01402110708907329,0.005993499247001565,-0.017087171050688764,0.028111347872328822,0.021929515057578616,-0.010773572570824884,0.044034681016520076,0.039141428195599605,0.02182797092294052,-0.007219619225323177,-0.010828269815675515,0.011882617717513685,-0.015712175148975348,0.01133251081684448,-0.02782776598163394,-0.02254671463905029,0.018356063575682056,0.0015353495130753204,0.01875586420734433,0.012966550193903248,0.03125132878825032,-0.029333272575386624,-0.023204332558509302,-0.005244971410289865,-0.01123736721746076,-0.031140419629415696,-0.014464437503175961,0.016002730047741432,0.006443342882306633,0.047084591211276616,-0.004131414215813278,-0.009433955041509833,-0.014037785738000779,-0.017161302665629433,0.010486919412010605,0.011719516606509267,-0.0020336689882579613,0.026201102132714635,-0.039899875840410555,0.03963245644120731,0.04566806777349794,0.013964591950093549,-0.015179179905319778,0.2759610927093919,0.02072266806845986,0.016414455239519392,-0.020954984349062386,-0.03758233071002951,-0.031193432113601875,0.010981167336477929,-0.0034893202870962246,-0.011683860424555912,-0.002292451631899563,0.018377873630098466,0.004422058874932621,0.03052305194446557,0.008010469354939789,-0.00010321639458186982,-0.04579908116834369,-0.0422848076191256,0.0019087998790118807,0.006975940480799123,0.008243209046806362,-0.0016781938797470397,-0.00592720049200981,-0.0022008049284537863,0.009378787559000184,-0.0031714983983334886,0.019906235493464406,-0.01729620600117664,-0.0043796378154374585,0.020707270216482953,0.008829536105650047,-0.011355781832976032,0.015696668634781707,-0.016085002821719884,-0.004306107327417051,0.002671666090080514,-0.0191506581638074,0.0021076537359844432,-0.003391570364112394,0.041952910558448575,-0.017279245640308655,0.020633525126164464,0.004484847250536885,-0.02745303086388875,0.004492248088684103,-0.01894479794062075,0.023413782669634103,-0.0007621869511825805,0.0025974496131130702,-0.01599100388862091,-0.014305878175070844,-0.010136739399754055,0.009746551522577099,0.02707398753074969,0.0035151711705725466,-0.00454781480559106,0.007237408599026706,-0.015445275707751026,-0.021900508668978212,-0.0032312606118025675,-0.01985979379253149,0.017131782234906596,0.02676756280026225,-0.00023055157848085757,0.022216095828024328,0.036280052274284165,0.008140229508820545]},"b2":{"n":3,"d":1,"w":[-0.12211577301024612,-0.1313872186466204,-0.13339324906043817]}}}