{"nh":50,"ns":5,"na":3,"net":{"W1":{"n":50,"d":5,"w":[0.03510594312848313,-0.025384939061477253,-0.0015876194966942707,-0.00943541451408798,-0.06561750538884752,-0.04346148945890312,0.03669205162210624,0.007989723590197272,0.009434011854330859,0.05898353379463655,-0.03267072991372571,0.022484683344075725,0.0259070295188214,-0.03008284209490321,-0.06874786520228625,0.059970235770211724,-0.04099295683041235,-0.034039425053755054,0.03275321651779309,-0.047751912109488925,-0.025138980785932928,0.01640445730541975,0.012754807365360303,0.0030830955534089303,0.017253360513546624,0.0025222356259435286,0.006417127240338088,0.012724118964352507,-0.032301673391222877,-0.07321874349004719,0.031624443421700184,-0.008087251935709935,0.016701053256498778,-0.042916215796367625,-0.060441192893200144,-0.016938957935923277,0.027136584069742762,0.014455645656180294,-0.035928813227942634,-0.005692050693017886,0.036928378191398714,-0.01639881700724201,-0.011957939367547174,0.012588108007336703,-0.019841635980670333,-0.00385572740071114,-0.02094205198239986,-0.024049266591813792,0.04783272007412954,0.0021720255176784268,-0.0358376526498859,0.06432731573554253,0.046766130575506694,-0.06025769007356045,0.03767122597215426,0.01979744520988488,-0.02998636601790051,-0.018751345136457705,0.03456710274039342,0.05271840685913505,-0.024217535693281767,0.03748961428985587,0.023217674356066136,-0.035954802416420156,0.016246349515583573,-0.0001501836962719258,-0.013698048037401756,-0.005302847599675412,0.002956137817823319,0.004889509777847592,0.002897123080962523,-0.011870890824240697,0.00035587079971015123,-0.004832384766218574,-0.03459217580806028,-0.08089289815013244,0.08260057486854278,0.029955529609891403,-0.0329381186876329,0.06857687661431451,0.009315307503729218,-0.010588667416911435,-0.017141108804709596,0.012455740508206036,0.017371544726942856,-0.019535516040609227,0.026732057566447687,0.010799885110310166,-0.028415826500364415,-0.002998580303606467,-0.02179740693394188,0.017042784136264127,0.0010628179798665787,0.010460201383965207,0.03891103045898634,0.04778789866690868,-0.0853454606495553,-0.036010088810560004,0.07456268649196152,0.004781093510406781,-0.005081210045453175,0.011685690268765394,0.019378579981468445,-0.028367908425243428,0.05149649983263564,0.012416361938343808,-0.009381237687587056,0.002737798709231228,0.01366873123004455,-0.014741034990230464,0.014275124418292264,-0.030812404227461496,-0.027531672280959905,0.014165987990564621,-0.07953712425442656,-0.007800912546635173,-0.006746801417149768,-0.014598026227717761,0.027306099392055753,-0.003756219190916274,0.061914590992333214,-0.05589620478095308,-0.06232713538255971,0.06412338104805405,-0.044715194483926524,0.011849089214794882,-0.027649156137448234,-0.02705191249956432,0.04079100937642487,0.03148606579575371,0.014799429003889942,-0.043649335015845225,-0.028934912795153755,0.023435953228831474,-0.05487498689673145,0.02451696196394362,-0.024725047691155716,0.0007824976480599395,-0.005924075243801853,-0.017302393907375268,-0.012531811221605377,-0.0008542096487385106,-0.013088824183140557,0.03916815064894309,0.08092301851835319,-0.033982832119848275,-0.0026239432302874303,-0.00408834658845885,0.029872504947085446,0.08616602423922423,-0.0030137158609734194,0.0033244695710095504,0.0014325020746048698,-0.02705390462240282,0.01098698559532543,-0.006171939684464364,-0.005176942338279742,0.0032458432652525135,-0.020823992598395097,0.0009474730072036193,0.007836229616052565,-0.0049512883148609705,-0.025304073247171776,0.00850991400832311,-0.0008444793271306595,-0.020884583826689146,0.013415872918411991,0.016658562229848777,-0.01754535151180131,0.06495552108468919,0.014278511179970888,-0.004906360702796457,-0.00549910149169136,0.015792003839948304,0.011973155408223664,0.003104232605959627,0.03215546704852771,0.02095255557750676,-0.04312855446634746,0.02143692057068184,-0.016518363015295582,-0.006257758846949584,0.016633704950564245,-0.005980251422315448,0.015035252099679592,0.013612112428890521,-0.007094553952352787,0.011377744043451037,0.002986659699951773,-0.03173414483022058,-0.006571080938047323,0.03621542214106163,0.003502938649737896,-0.0061618132513673205,-0.05131107976703733,-0.03569903941909922,0.016134659489367643,-0.0086680227036028,0.018936960018623654,0.008808343464639991,0.014089115540376751,-0.053760172720043534,-0.03059153388540765,0.05302240389937009,-0.015604437548809313,-0.05661496793442488,0.036450847906044935,0.024170787135833063,0.007868366128955343,0.0978697215700765,0.0001473877395992618,-0.02062920977124356,0.0009802362320334476,0.006527303239509632,-0.016657195279697088,0.025386549495476255,-0.006732077858050888,-0.01019563575130516,-0.021617780228662935,-0.03165825312152804,-0.0054128392712659585,0.022152895806263215,-0.008478198282924253,-0.0198059586115633,-0.010587099899229565,-0.018143837499986878,-0.014322461003300526,-0.02199403291819464,0.0361748476451556,0.03684482011612952,-0.015454452218266388,0.015281151760135404,0.019873249688445477,-0.03956090213943786,-0.03454999532707753,0.014321590489863874,-0.0024194660258515894,-0.0004557162045033916,-0.01819332538049736,0.019494937183801922,0.013198871793016027,-0.04161545528943243,-0.03879429575203983,0.04151823069291947,-0.008761036046933233,-0.0435205722046804,0.02819145394022484,0.013530357655259818,0.015497867410311169,0.11208824504464401]},"b1":{"n":50,"d":1,"w":[0.006356578416941541,-0.006893597293441621,0.006498596985415092,0.0015060079702978182,-0.001666934720583228,0.007458638856694737,0.008429417189807267,0.001709287496316389,0.0007371921200686055,-0.0028390538627283794,-0.0024305103227170704,-0.004799230056418303,-0.0007447154385800131,0.0010491295369706864,0.004227784923008048,-0.00740714983993579,-0.001400024659640603,0.0010509339088725302,-0.004180565417521005,-0.00023573366870368158,-0.001440817319597036,-0.0003218213208161989,0.007348144450904663,-0.0010277327957902173,0.0004669131918485729,-0.0031706573469894254,0.004985628568211104,0.002593751130681434,-0.008696357487726897,-0.006772942027292953,0.0018582002162251994,0.0030498479934524896,-0.0003571023797922567,-0.0038541096527817892,-0.0022693876300950884,-0.0008660899733604496,0.001290420890299064,0.0013931268840338474,0.0006901998396514205,-0.0019581824730850084,0.001489571960060278,-0.00824971112199976,0.0029142127037975907,0.004332705601420339,0.0007324429402950908,-0.0034929445590663457,0.005371943906668024,0.0006442589051490189,0.00025187098233570357,-0.009785529531557577]},"W2":{"n":3,"d":50,"w":[-0.07680032762081052,0.07820476622914001,-0.018099967892997493,-0.08397754512712896,0.03409338387604054,-0.0489805979327673,-0.058298491174694045,0.02047362487179987,-0.04030249429534338,-0.005341027367182644,0.07814113925927034,0.011466196522296246,0.04199709052196321,-0.005862486527015172,-0.0322875774577493,0.12463591951950449,0.0010798313509912407,0.02001438497135832,0.04255329523910519,-0.0594613180685346,0.04596462488505687,-0.016706166238333937,-0.07994874424839296,-0.003236170698912962,-0.08974139294260224,0.0023690088364792597,-0.06773416499303707,-0.03335151495866716,0.06159904297170013,0.07016430546783806,0.01009172161723412,-0.002104094980364715,-0.008529876330357514,0.06572844616123333,-0.001807039998310468,0.030916969146831928,0.014550665176221585,-0.03253245818905869,-0.016595948055101284,0.030166588855952324,-0.04512446050642162,0.11287101424775402,-0.023040913050301256,-0.040545108448747626,0.001589356438816232,0.02747856188140049,-0.009432095253019752,0.004864709815784677,-0.03708535881409671,0.11084351656508992,0.016630475835615232,-0.005959949383583133,0.03849126623791335,-0.028253605182017354,-0.004744202528158915,0.03836525499836923,0.04127726835349402,0.03073076044265172,-0.012761068377631187,-0.051788259516224205,0.06246221603775288,-0.03832928939134264,0.03852157754058602,-0.005467610758337546,0.004131045232647086,0.03626327169825753,-0.019518958714586296,0.027404330952453582,-0.00827245240900238,-0.07666390225093382,0.02195690742640256,-0.009249709185144752,-0.02081572193730443,-0.03051409050921287,-0.06845021522772257,-0.052577572453694446,-0.02621119347375228,0.0072963737469186355,-0.04569037829140865,-0.0324865938034221,0.018490185709412705,0.017051175900332432,-0.0179751512986615,0.013933455943919825,-0.013330936234730178,0.04416772630933908,0.006312848196346087,0.01310107508157831,0.016649848816788368,-0.025851786652603532,-0.05967265791445412,-0.007195555485985522,-0.006340671708707277,0.016312381940705813,0.018500668601167104,-0.04929352449256659,0.0414691611870245,0.00966332484289062,-0.04524649206341965,-0.017594537980825158,0.006193040130627773,-0.004743339903284319,0.07247194281367804,-0.026628755743057994,0.017367042367448255,0.049728752222747655,0.023924425643817127,0.024984164273052487,-0.005222233027423327,-0.015490722121615879,0.02466570077171494,-0.056043027679965864,0.014732011477449581,-0.013615142706831737,0.019500449417049016,0.021533723461486343,-0.016144055880513854,0.02988830785288957,-0.013609463454707533,-0.06525523704571005,-0.020511599398508187,0.004480849168136892,0.03834838832493871,0.008334903060274767,-0.033830903642748746,-0.032988861174589615,0.0038940072813768854,-0.02014534587052892,-0.041818738115468025,-0.03981445463482905,-0.0031791349297424633,-0.002001413220815776,-0.0004978981768023054,-0.025577843775504563,-0.017325607440236264,-0.0009201215123045965,-0.005568549186075333,-0.006941431707327497,0.04412818264954877,0.02872718028934866,-0.016609030077507282,-0.016087195425386974,0.004643756612198687,0.0045442257187799815,0.013186227808551726,-0.01568740311207992,0.033480540336054555,-0.018218536019183874,-0.023934702572587174,-0.04208641994896549]},"b2":{"n":3,"d":1,"w":[-0.04797365363688577,-0.003004913767670144,0.01945277834637809]}}}